{
    "generation": 15,
    "HighestSurvival": 21,
    "Genes": [
        [
            [
                {
                    "weights": [
                        [
                            -0.9042655586276157,
                            -1.1388462297998132,
                            -0.051324573741490506,
                            1.0464238645137296,
                            -0.9921854839840208,
                            -0.8875686701678935,
                            0.8178372250631076,
                            -1.1760964706206882
                        ],
                        [
                            0.8712052408662994,
                            0.19546381246908343,
                            0.4992407592749077,
                            0.2624615681824475,
                            -0.8979764917793592,
                            0.022191142897278776,
                            0.073652360158391,
                            -0.7711880007415179
                        ],
                        [
                            -0.8167766158912457,
                            -0.09444818289242375,
                            -0.03759606553838159,
                            -0.626032668899616,
                            0.7508307502359932,
                            -0.0806176515442995,
                            -0.6191852183410891,
                            -1.0
                        ],
                        [
                            0.5957768307519253,
                            -0.026824682607613892,
                            0.19625544495996486,
                            -0.10666992685640264,
                            0.11121607791775434,
                            -0.8959381951555321,
                            0.028871500100296182,
                            1.0
                        ],
                        [
                            -0.7517291241548998,
                            -0.27117146653936763,
                            0.9591192678558794,
                            -0.6174408458845564,
                            -1.1959542978689794,
                            -0.8221193471620374,
                            1.1036758912938989,
                            -0.8069625274161711
                        ]
                    ],
                    "biases": [
                        [
                            -0.9978466002029127,
                            -0.793639240199611,
                            -0.9749227300975243,
                            0.6724467351223375,
                            -0.7455162620821028,
                            0.24929627983893127,
                            -1.0641948427558905,
                            -0.931341180823524
                        ]
                    ]
                }
            ],
            [
                {
                    "weights": [
                        [
                            -0.8341496640772124,
                            0.11926716212708012,
                            -0.2349067037205116,
                            -0.5733696906480339,
                            -0.9923063878094731,
                            1.019440301841374,
                            0.26305024812435707,
                            -1.0448654572568201
                        ],
                        [
                            0.4959855064230039,
                            1.1029589771604804,
                            0.4417646839290869,
                            -1.167408775864971,
                            -0.8800213221282459,
                            -1.1212591379131944,
                            -0.14793888972851688,
                            0.22174816373010095
                        ],
                        [
                            -0.22883429087138207,
                            -0.06681178563547176,
                            0.8590053788872815,
                            -0.35591006633337724,
                            0.6746893343829715,
                            -0.7650730076378525,
                            1.1075431547515273,
                            0.18844101749146192
                        ],
                        [
                            0.2975676262455441,
                            0.7121824479025617,
                            0.656146979799594,
                            -0.3775597973356935,
                            0.3002368948881398,
                            0.9528552022377644,
                            -0.4372587319926336,
                            -0.6780379321151703
                        ],
                        [
                            0.38375603147646964,
                            -0.6622918940864255,
                            -1.099415590735086,
                            -0.37467662391652773,
                            -0.44129444448515276,
                            -0.377518603768866,
                            -1.1678779736075142,
                            -0.3559789536189086
                        ],
                        [
                            -1.096239446758244,
                            -0.5543920598848139,
                            0.450847462510244,
                            -0.7771408697816636,
                            0.3739596550880871,
                            -0.590151888624793,
                            -0.8954979526485441,
                            0.43409217627307206
                        ],
                        [
                            -0.9503957599648293,
                            0.6719377759840154,
                            1.1938068504745842,
                            0.16189776585397547,
                            0.7998926073957773,
                            0.9852210715267147,
                            -0.5658455322573925,
                            0.053453256066325894
                        ],
                        [
                            -0.9390533785161079,
                            0.7784468581673647,
                            1.0,
                            -0.855941215188301,
                            -0.7556172805105765,
                            -0.8290185306834459,
                            -0.98524446689176,
                            -1.0187064026836674
                        ]
                    ],
                    "biases": [
                        [
                            -0.17308647478362038,
                            0.06440334737893885,
                            -1.101325260231477,
                            1.0,
                            1.30630309993252,
                            0.6301681993501334,
                            0.8985806267682083,
                            -1.0528609338826755
                        ]
                    ]
                }
            ],
            [
                {
                    "weights": [
                        [
                            -0.2290110471034173,
                            0.22553773055784998,
                            0.5706372540625826,
                            -0.14232607907786204,
                            -1.0827420906160328
                        ],
                        [
                            1.0,
                            -0.5946102880027133,
                            0.627755731511366,
                            -0.5171539539716541,
                            -1.0
                        ],
                        [
                            -0.0854003080206695,
                            1.0413238033052081,
                            0.9234079746865527,
                            0.9757954408684756,
                            -0.7421736414407049
                        ],
                        [
                            1.1553199354913937,
                            -0.0005057191781227266,
                            -0.7111358089961162,
                            0.08408167382533283,
                            -0.2245290528465737
                        ],
                        [
                            1.1498232294245818,
                            -1.1281273253826694,
                            0.16209363401870192,
                            1.045353602934579,
                            -1.0966627577831387
                        ],
                        [
                            -1.0434612044020677,
                            0.7509336679380305,
                            -0.45507493845120306,
                            -0.4699443405996662,
                            1.067268255278933
                        ],
                        [
                            -1.018560553327422,
                            -0.29353556031096184,
                            0.8043850041195663,
                            -0.6701350020782157,
                            0.1796848538331343
                        ],
                        [
                            -0.5805270685956773,
                            -0.33764191689517914,
                            0.4102677885173856,
                            -0.9196836610697764,
                            -0.9160781097638782
                        ]
                    ],
                    "biases": [
                        [
                            -0.18490611112028532,
                            0.2804699670199068,
                            0.5017327717024365,
                            0.21921119220828278,
                            0.28384107232992095
                        ]
                    ]
                }
            ]
        ],
        [
            [
                {
                    "weights": [
                        [
                            -0.8595219687812476,
                            -0.9813550325844101,
                            0.1225336421649473,
                            1.083264324816118,
                            -1.2024026022228405,
                            -0.8285575263122678,
                            0.9573203033768948,
                            -0.9938671092355167
                        ],
                        [
                            1.014448745665025,
                            0.19546381246908343,
                            0.5298282636176812,
                            0.3225989321613621,
                            -1.0566528403444935,
                            0.19047618276819,
                            -0.02577503900606501,
                            -0.6695702952781124
                        ],
                        [
                            -0.8247645731151857,
                            0.28364576586886675,
                            0.07361971544129607,
                            -0.7826861365952981,
                            1.0,
                            -0.2095465051377881,
                            -0.8733726323497855,
                            -1.0158817510512022
                        ],
                        [
                            0.2817767150048707,
                            -0.04225624727326374,
                            0.2069467782191655,
                            -0.10666992685640264,
                            -0.07849332956388096,
                            -0.871845585179249,
                            0.12642607069185322,
                            1.0
                        ],
                        [
                            -0.8880812424991438,
                            -0.4600921157974257,
                            1.0252235422322702,
                            -0.574259507666885,
                            -1.1002523196350198,
                            -0.9537445073838497,
                            0.7729475600624589,
                            -1.0805156209422964
                        ]
                    ],
                    "biases": [
                        [
                            -0.9978466002029127,
                            -1.1643904203429574,
                            -0.5089559370632575,
                            0.9335973703525584,
                            -1.0,
                            0.407101531193961,
                            -1.0431349588841272,
                            -0.931341180823524
                        ]
                    ]
                }
            ],
            [
                {
                    "weights": [
                        [
                            -0.9736040242003687,
                            0.2173992898960928,
                            0.00039126786132379543,
                            -0.3625590715819277,
                            -1.015547457417837,
                            1.0372720123703207,
                            0.333694794677767,
                            -1.0175074749216977
                        ],
                        [
                            0.3064729620529948,
                            1.1044169855835042,
                            0.43442586162062663,
                            -1.2928366440582675,
                            -1.0,
                            -0.9730361923249358,
                            -0.4599337629406591,
                            0.31803065580719736
                        ],
                        [
                            -0.09500807093971309,
                            -0.06681178563547176,
                            0.7223949167184975,
                            -0.5147101394581126,
                            0.7950889301329742,
                            -0.6966068971046506,
                            1.0905210717894278,
                            0.12033542486751464
                        ],
                        [
                            0.46398862128850943,
                            0.6296376732334135,
                            1.065953837580444,
                            0.08600751105936973,
                            -0.07203902847056741,
                            1.0,
                            -0.28018963900344107,
                            -0.6780379321151703
                        ],
                        [
                            0.35663648101015066,
                            -0.4947513281308569,
                            -0.8999083367566661,
                            -0.39536519788803315,
                            -0.637468561227385,
                            -0.3778908277182141,
                            -1.2985259817336194,
                            -0.15949893735021467
                        ],
                        [
                            -1.0,
                            -0.44350630657166495,
                            0.49992109468882456,
                            -0.7771408697816636,
                            0.11374608305542311,
                            -0.7658768690961653,
                            -0.917808779063738,
                            0.2526074387188746
                        ],
                        [
                            -0.9503957599648293,
                            0.6705389334443891,
                            0.8745483247437624,
                            0.21145461823700265,
                            0.708216686989374,
                            0.8923571547428618,
                            -0.9083802117286457,
                            0.053453256066325894
                        ],
                        [
                            -0.9839470629405624,
                            1.0,
                            0.9454819188348516,
                            -0.7397436396961828,
                            -0.7877193589605753,
                            -0.8290185306834459,
                            -1.2522614466204258,
                            -1.1860374769574658
                        ]
                    ],
                    "biases": [
                        [
                            -0.1280066432579108,
                            0.06440334737893885,
                            -1.0082334634869097,
                            1.0,
                            1.187403611556924,
                            0.47873717925541215,
                            1.110962874478111,
                            -0.9529530823939074
                        ]
                    ]
                }
            ],
            [
                {
                    "weights": [
                        [
                            -0.0026470697087510875,
                            0.28557185780038874,
                            0.6402940760225172,
                            0.04719875441100173,
                            -1.0728013473672329
                        ],
                        [
                            0.9814754973054396,
                            -0.5784853357174142,
                            0.5175270721843322,
                            -0.33249488129690474,
                            -0.9749919251038458
                        ],
                        [
                            0.10495086002484338,
                            0.959842976479922,
                            0.5255735184658179,
                            1.1104616496587485,
                            -0.8393924371904813
                        ],
                        [
                            1.0452104674780813,
                            -0.1277123231055074,
                            -0.478918758345959,
                            -0.1047060850532607,
                            -0.10245540724686208
                        ],
                        [
                            1.0,
                            -1.1431683948316171,
                            0.3195765075037809,
                            0.8707803242866337,
                            -0.9042041004091392
                        ],
                        [
                            -1.0,
                            0.8082015741440826,
                            -0.8272668962440979,
                            -0.6797812539566084,
                            1.067268255278933
                        ],
                        [
                            -0.9556126035142563,
                            -0.29075788413982123,
                            0.5978403539927982,
                            -0.6838097834329965,
                            0.3572292248599547
                        ],
                        [
                            -0.38380489119899763,
                            -0.5826648956324945,
                            0.5285181337353264,
                            -0.7239556406856942,
                            -0.8808241369828279
                        ]
                    ],
                    "biases": [
                        [
                            -0.3362029949358763,
                            -0.07954257851671107,
                            0.5017327717024365,
                            0.10742923058441528,
                            0.28381376713364215
                        ]
                    ]
                }
            ]
        ],
        [
            [
                {
                    "weights": [
                        [
                            -1.1850419721359249,
                            -1.0208197816117595,
                            0.057902097477973785,
                            1.0,
                            -1.0102527747385797,
                            -1.0170682546497234,
                            0.9755336907133948,
                            -1.1847195446814491
                        ],
                        [
                            1.0,
                            0.19546381246908343,
                            0.4913911474799885,
                            0.4428417367719104,
                            -0.854781159984253,
                            0.3692587928000953,
                            -0.011438179450491248,
                            -0.7774991006610718
                        ],
                        [
                            -0.8167766158912457,
                            0.30487656604017044,
                            -0.04640488337131428,
                            -0.626032668899616,
                            0.9325509124925786,
                            -0.28979596442975697,
                            -0.7573736947493959,
                            -0.8710677838798365
                        ],
                        [
                            0.3584132285175283,
                            0.058371515562901766,
                            0.341799353012173,
                            0.01832829014089865,
                            0.10956689620069752,
                            -0.871845585179249,
                            -0.06383569302129197,
                            1.1772008066519606
                        ],
                        [
                            -0.5788462015837953,
                            -0.3175695251231484,
                            1.0,
                            -0.4715997482282112,
                            -1.0,
                            -0.8221193471620374,
                            1.0,
                            -0.8459253939833159
                        ]
                    ],
                    "biases": [
                        [
                            -0.9072048351442911,
                            -0.793639240199611,
                            -1.0,
                            0.6724467351223375,
                            -1.0755036967021878,
                            0.24929627983893127,
                            -0.9211325531068775,
                            -0.931341180823524
                        ]
                    ]
                }
            ],
            [
                {
                    "weights": [
                        [
                            -0.8750153329686818,
                            0.11926716212708012,
                            0.00039126786132379543,
                            -0.4115373836293103,
                            -1.0128054648699212,
                            1.0117013956098582,
                            0.4793898376334508,
                            -0.811907318969134
                        ],
                        [
                            0.4292612104135769,
                            0.8798492439382299,
                            0.4417646839290869,
                            -1.1028702993747035,
                            -1.0,
                            -0.9730361923249358,
                            -0.4603864526585959,
                            0.11561223363866382
                        ],
                        [
                            -0.21502230972372932,
                            0.10603365498486024,
                            0.656084459829181,
                            -0.5004899345539189,
                            0.6746893343829715,
                            -0.8948292447469917,
                            1.0,
                            0.12033542486751464
                        ],
                        [
                            0.18174223416109664,
                            0.7121824479025617,
                            0.656146979799594,
                            -0.01495662852346362,
                            -0.006415132799047318,
                            1.0,
                            -0.4372587319926336,
                            -0.6780379321151703
                        ],
                        [
                            0.38375603147646964,
                            -0.43709964484774205,
                            -1.0702562250522951,
                            -0.5131375013412712,
                            -0.5652439449876863,
                            -0.5447220925313413,
                            -1.1678779736075142,
                            -0.26046883625653017
                        ],
                        [
                            -1.0,
                            -0.44350630657166495,
                            0.3819335016938727,
                            -0.6482108250501307,
                            0.23438681480419726,
                            -0.590151888624793,
                            -0.917808779063738,
                            0.43811803474769284
                        ],
                        [
                            -0.9503957599648293,
                            0.6719377759840154,
                            1.1938068504745842,
                            0.17932497193703262,
                            0.9630803385129382,
                            1.078765995855575,
                            -0.8747918169190871,
                            -0.18302806413565564
                        ],
                        [
                            -0.9390533785161079,
                            0.9499143387612881,
                            0.9095348342334426,
                            -0.7397436396961828,
                            -0.8380751920230596,
                            -0.8290185306834459,
                            -0.8811998402159303,
                            -0.9527344805327836
                        ]
                    ],
                    "biases": [
                        [
                            -0.1280066432579108,
                            0.06440334737893885,
                            -1.2864650316015973,
                            1.0,
                            1.277630196344733,
                            0.6711630142258077,
                            0.9895152598736041,
                            -1.1501152533235854
                        ]
                    ]
                }
            ],
            [
                {
                    "weights": [
                        [
                            -0.18322583497841582,
                            0.22553773055784998,
                            0.7491150695021859,
                            -0.14232607907786204,
                            -1.0728013473672329
                        ],
                        [
                            1.0,
                            -0.5621733409297273,
                            0.3936794089583695,
                            -0.5171539539716541,
                            -1.0
                        ],
                        [
                            0.09684918616948321,
                            0.8491996566670851,
                            0.8467158994657167,
                            0.8632676968326422,
                            -0.7421736414407049
                        ],
                        [
                            0.8748072067749862,
                            -0.13388896159516842,
                            -0.7506576559877642,
                            -0.13917929368377074,
                            -0.2245290528465737
                        ],
                        [
                            1.0,
                            -1.18018668491784,
                            0.1276642786562517,
                            0.8707803242866337,
                            -1.0874906146700378
                        ],
                        [
                            -1.0798654528015628,
                            0.7509336679380305,
                            -0.5790017838448336,
                            -0.4699443405996662,
                            1.067268255278933
                        ],
                        [
                            -1.018560553327422,
                            -0.29353556031096184,
                            0.733785866824684,
                            -0.7377207338509753,
                            0.48220416820382084
                        ],
                        [
                            -0.4428364932452231,
                            -0.4164946960097344,
                            0.5078175941311707,
                            -0.9261184969618069,
                            -0.970053773279675
                        ]
                    ],
                    "biases": [
                        [
                            -0.2023243025282706,
                            -0.07954257851671107,
                            0.5017327717024365,
                            0.17705156320342377,
                            0.11733679600511343
                        ]
                    ]
                }
            ]
        ],
        [
            [
                {
                    "weights": [
                        [
                            -1.0517901886768528,
                            -0.9509338958761995,
                            -0.07265816420428321,
                            1.0464238645137296,
                            -1.029684161905751,
                            -1.11671521404399,
                            1.0505218432621823,
                            -1.1760964706206882
                        ],
                        [
                            1.0,
                            0.19546381246908343,
                            0.5689012929206612,
                            0.4428417367719104,
                            -0.7392825437949743,
                            0.18315936169301142,
                            0.073652360158391,
                            -0.9506474995598369
                        ],
                        [
                            -0.841840381456834,
                            -0.044795428540947896,
                            -0.041642568787494685,
                            -0.626032668899616,
                            0.8603418393595952,
                            -0.2095465051377881,
                            -0.7573736947493959,
                            -1.0
                        ],
                        [
                            0.5957768307519253,
                            -0.12401343714694248,
                            0.0874727072632295,
                            -0.10666992685640264,
                            0.21914821118971373,
                            -0.8959381951555321,
                            0.028871500100296182,
                            1.0
                        ],
                        [
                            -0.7517291241548998,
                            -0.24916486045525407,
                            0.9737349012900033,
                            -0.6174408458845564,
                            -1.0519791530814726,
                            -0.8221193471620374,
                            0.999458592033118,
                            -1.00678133920739
                        ]
                    ],
                    "biases": [
                        [
                            -0.9978466002029127,
                            -0.793639240199611,
                            -1.1925802916318644,
                            0.7501093345885952,
                            -0.9524910261329247,
                            0.24929627983893127,
                            -0.9211325531068775,
                            -0.931341180823524
                        ]
                    ]
                }
            ],
            [
                {
                    "weights": [
                        [
                            -0.8321266245589857,
                            0.057262962355676114,
                            -0.07850979680534599,
                            -0.5783950300557386,
                            -0.8475333624137165,
                            0.8504050382015254,
                            0.32305165849476697,
                            -0.886561096172971
                        ],
                        [
                            0.4292612104135769,
                            0.9129127966345741,
                            0.7378644201038034,
                            -1.3226217349233826,
                            -0.9871662183450223,
                            -0.9730361923249358,
                            -0.0039836262382966225,
                            0.22174816373010095
                        ],
                        [
                            -0.28093173768274665,
                            0.0797322521861966,
                            0.7013730747672822,
                            -0.5147101394581126,
                            0.6600086760705994,
                            -0.6239975451599842,
                            0.8227028417242932,
                            0.18844101749146192
                        ],
                        [
                            0.2975676262455441,
                            0.7121824479025617,
                            0.656146979799594,
                            -0.01495662852346362,
                            0.35557963943496984,
                            1.0,
                            -0.4372587319926336,
                            -0.6780379321151703
                        ],
                        [
                            0.38375603147646964,
                            -0.7400212075853622,
                            -1.099415590735086,
                            -0.6039607375499446,
                            -0.7140915306475617,
                            -0.6974610108475976,
                            -1.1372573569877749,
                            -0.2979275688866746
                        ],
                        [
                            -1.0,
                            -0.5543920598848139,
                            0.450847462510244,
                            -0.7771408697816636,
                            0.3739596550880871,
                            -0.590151888624793,
                            -0.917808779063738,
                            0.5598495825976325
                        ],
                        [
                            -1.1270967973085515,
                            0.6719377759840154,
                            1.0623154330290658,
                            0.0977956827652973,
                            0.9523123235702702,
                            1.078765995855575,
                            -0.8747918169190871,
                            -0.1424809434034749
                        ],
                        [
                            -1.1223308612090417,
                            0.9499143387612881,
                            1.0442801633125998,
                            -0.855941215188301,
                            -0.6933216476622401,
                            -0.8290185306834459,
                            -1.066045533370902,
                            -0.9527344805327836
                        ]
                    ],
                    "biases": [
                        [
                            -0.2700230284505613,
                            0.14892804629751624,
                            -1.101325260231477,
                            1.0,
                            1.3565951196999189,
                            0.6711630142258077,
                            1.0788194709055738,
                            -1.0528609338826755
                        ]
                    ]
                }
            ],
            [
                {
                    "weights": [
                        [
                            -0.18322583497841582,
                            0.22553773055784998,
                            0.9397138051029061,
                            -0.14232607907786204,
                            -1.0827420906160328
                        ],
                        [
                            1.0,
                            -0.5946102880027133,
                            0.7060544233665937,
                            -0.5171539539716541,
                            -1.0
                        ],
                        [
                            0.1374620402661133,
                            0.934613932906549,
                            0.8467158994657167,
                            0.9757954408684756,
                            -0.7421736414407049
                        ],
                        [
                            1.0452104674780813,
                            -0.06635161419123722,
                            -0.7111358089961162,
                            -0.07513248507079134,
                            -0.2245290528465737
                        ],
                        [
                            1.1498232294245818,
                            -1.1281273253826694,
                            0.06411397046350453,
                            0.9166114948701115,
                            -1.0966627577831387
                        ],
                        [
                            -0.8913660283116013,
                            0.5871057755788716,
                            -0.5727037296950587,
                            -0.4699443405996662,
                            1.067268255278933
                        ],
                        [
                            -1.018560553327422,
                            -0.225520079501057,
                            0.733785866824684,
                            -0.6608289658755954,
                            0.5064097909634535
                        ],
                        [
                            -0.4428364932452231,
                            -0.33764191689517914,
                            0.49864056293632175,
                            -0.823121154298751,
                            -0.6824173226436068
                        ]
                    ],
                    "biases": [
                        [
                            -0.11442975957815754,
                            0.10019637447223975,
                            0.5017327717024365,
                            0.10742923058441528,
                            0.1934606756610738
                        ]
                    ]
                }
            ]
        ],
        [
            [
                {
                    "weights": [
                        [
                            -0.9042655586276157,
                            -0.8355330713797782,
                            -0.07265816420428321,
                            1.0464238645137296,
                            -1.0102527747385797,
                            -1.11671521404399,
                            1.0505218432621823,
                            -1.1760964706206882
                        ],
                        [
                            1.0,
                            0.19546381246908343,
                            0.5689012929206612,
                            0.4428417367719104,
                            -0.7392825437949743,
                            0.022191142897278776,
                            0.073652360158391,
                            -0.7711880007415179
                        ],
                        [
                            -0.841840381456834,
                            -0.044795428540947896,
                            -0.03759606553838159,
                            -0.626032668899616,
                            0.7508307502359932,
                            -0.2095465051377881,
                            -0.7573736947493959,
                            -1.0
                        ],
                        [
                            0.5957768307519253,
                            -0.12401343714694248,
                            0.0874727072632295,
                            -0.10666992685640264,
                            0.1540038963799527,
                            -0.8959381951555321,
                            0.028871500100296182,
                            1.0
                        ],
                        [
                            -0.7517291241548998,
                            -0.10584340920225782,
                            0.9737349012900033,
                            -0.6174408458845564,
                            -1.0519791530814726,
                            -0.8221193471620374,
                            1.0,
                            -1.00678133920739
                        ]
                    ],
                    "biases": [
                        [
                            -0.9978466002029127,
                            -0.793639240199611,
                            -1.0244809060637161,
                            0.6724467351223375,
                            -0.9524910261329247,
                            0.24929627983893127,
                            -0.9211325531068775,
                            -0.931341180823524
                        ]
                    ]
                }
            ],
            [
                {
                    "weights": [
                        [
                            -0.8341496640772124,
                            0.057262962355676114,
                            -0.07850979680534599,
                            -0.5783950300557386,
                            -0.8475333624137165,
                            0.8504050382015254,
                            0.32305165849476697,
                            -0.886561096172971
                        ],
                        [
                            0.4292612104135769,
                            0.9129127966345741,
                            0.5627384214637143,
                            -1.3226217349233826,
                            -0.9871662183450223,
                            -0.9730361923249358,
                            -0.0039836262382966225,
                            0.22174816373010095
                        ],
                        [
                            -0.28093173768274665,
                            -0.09355362165335786,
                            0.7013730747672822,
                            -0.5147101394581126,
                            0.6600086760705994,
                            -0.7650730076378525,
                            1.0,
                            0.18844101749146192
                        ],
                        [
                            0.2975676262455441,
                            0.7121824479025617,
                            0.656146979799594,
                            -0.01495662852346362,
                            0.35557963943496984,
                            1.0,
                            -0.4372587319926336,
                            -0.6780379321151703
                        ],
                        [
                            0.38375603147646964,
                            -0.6646863407006162,
                            -1.099415590735086,
                            -0.6039607375499446,
                            -0.6063406128107675,
                            -0.5447220925313413,
                            -1.1372573569877749,
                            -0.2979275688866746
                        ],
                        [
                            -1.0,
                            -0.5543920598848139,
                            0.450847462510244,
                            -0.7771408697816636,
                            0.3739596550880871,
                            -0.590151888624793,
                            -0.917808779063738,
                            0.5598495825976325
                        ],
                        [
                            -1.1270967973085515,
                            0.6719377759840154,
                            1.0623154330290658,
                            0.0977956827652973,
                            0.7998926073957773,
                            1.078765995855575,
                            -0.8747918169190871,
                            -0.1424809434034749
                        ],
                        [
                            -1.1223308612090417,
                            0.9499143387612881,
                            1.0442801633125998,
                            -0.855941215188301,
                            -0.6933216476622401,
                            -0.8290185306834459,
                            -1.066045533370902,
                            -0.9527344805327836
                        ]
                    ],
                    "biases": [
                        [
                            -0.1280066432579108,
                            0.06440334737893885,
                            -1.101325260231477,
                            1.0,
                            1.3565951196999189,
                            0.6711630142258077,
                            1.0788194709055738,
                            -1.0528609338826755
                        ]
                    ]
                }
            ],
            [
                {
                    "weights": [
                        [
                            -0.18322583497841582,
                            0.22553773055784998,
                            0.9397138051029061,
                            -0.14232607907786204,
                            -1.0827420906160328
                        ],
                        [
                            1.0,
                            -0.5946102880027133,
                            0.7060544233665937,
                            -0.5171539539716541,
                            -1.0
                        ],
                        [
                            -0.061252882486168836,
                            0.8491996566670851,
                            0.8467158994657167,
                            0.9757954408684756,
                            -0.7421736414407049
                        ],
                        [
                            1.0452104674780813,
                            -0.06635161419123722,
                            -0.7111358089961162,
                            -0.07513248507079134,
                            -0.2245290528465737
                        ],
                        [
                            1.1498232294245818,
                            -1.1281273253826694,
                            0.06411397046350453,
                            0.9166114948701115,
                            -1.0966627577831387
                        ],
                        [
                            -0.8913660283116013,
                            0.5871057755788716,
                            -0.5727037296950587,
                            -0.4699443405996662,
                            1.067268255278933
                        ],
                        [
                            -1.018560553327422,
                            -0.225520079501057,
                            0.733785866824684,
                            -0.6608289658755954,
                            0.5064097909634535
                        ],
                        [
                            -0.4428364932452231,
                            -0.33764191689517914,
                            0.49864056293632175,
                            -0.823121154298751,
                            -0.6824173226436068
                        ]
                    ],
                    "biases": [
                        [
                            -0.11442975957815754,
                            0.10019637447223975,
                            0.5017327717024365,
                            0.10742923058441528,
                            0.28384107232992095
                        ]
                    ]
                }
            ]
        ],
        [
            [
                {
                    "weights": [
                        [
                            -1.1850419721359249,
                            -1.0208197816117595,
                            0.057902097477973785,
                            1.0,
                            -1.0102527747385797,
                            -1.0170682546497234,
                            0.8802720934730628,
                            -1.1847195446814491
                        ],
                        [
                            1.0,
                            0.19546381246908343,
                            0.4913911474799885,
                            0.4428417367719104,
                            -0.854781159984253,
                            0.3692587928000953,
                            -0.011438179450491248,
                            -0.7774991006610718
                        ],
                        [
                            -0.8167766158912457,
                            0.30487656604017044,
                            -0.04640488337131428,
                            -0.626032668899616,
                            0.9325509124925786,
                            -0.2095465051377881,
                            -0.7573736947493959,
                            -1.0
                        ],
                        [
                            0.3584132285175283,
                            0.058371515562901766,
                            0.22769160325187057,
                            0.01832829014089865,
                            0.10956689620069752,
                            -0.871845585179249,
                            -0.06383569302129197,
                            1.1772008066519606
                        ],
                        [
                            -0.7517291241548998,
                            -0.3175695251231484,
                            1.0,
                            -0.4715997482282112,
                            -1.0,
                            -0.8221193471620374,
                            1.0,
                            -0.8459253939833159
                        ]
                    ],
                    "biases": [
                        [
                            -0.9978466002029127,
                            -0.793639240199611,
                            -1.0,
                            0.6724467351223375,
                            -0.9524910261329247,
                            0.24929627983893127,
                            -0.9211325531068775,
                            -0.931341180823524
                        ]
                    ]
                }
            ],
            [
                {
                    "weights": [
                        [
                            -0.8341496640772124,
                            0.11926716212708012,
                            0.00039126786132379543,
                            -0.4115373836293103,
                            -1.0128054648699212,
                            1.0117013956098582,
                            0.4793898376334508,
                            -0.811907318969134
                        ],
                        [
                            0.4292612104135769,
                            0.8798492439382299,
                            0.4417646839290869,
                            -1.1028702993747035,
                            -1.0,
                            -0.9730361923249358,
                            -0.4603864526585959,
                            0.11561223363866382
                        ],
                        [
                            -0.21502230972372932,
                            0.10603365498486024,
                            0.7013730747672822,
                            -0.5004899345539189,
                            0.6746893343829715,
                            -0.8948292447469917,
                            1.0,
                            0.12033542486751464
                        ],
                        [
                            0.18174223416109664,
                            0.7121824479025617,
                            0.656146979799594,
                            -0.01495662852346362,
                            -0.006415132799047318,
                            1.0,
                            -0.4372587319926336,
                            -0.6780379321151703
                        ],
                        [
                            0.38375603147646964,
                            -0.43709964484774205,
                            -1.0702562250522951,
                            -0.5131375013412712,
                            -0.5652439449876863,
                            -0.5447220925313413,
                            -1.1678779736075142,
                            -0.10810836754821293
                        ],
                        [
                            -1.0,
                            -0.44350630657166495,
                            0.49992109468882456,
                            -0.6482108250501307,
                            0.23438681480419726,
                            -0.590151888624793,
                            -0.917808779063738,
                            0.43811803474769284
                        ],
                        [
                            -0.9503957599648293,
                            0.6719377759840154,
                            1.1938068504745842,
                            0.0977956827652973,
                            0.9630803385129382,
                            1.078765995855575,
                            -0.8747918169190871,
                            -0.18302806413565564
                        ],
                        [
                            -0.9390533785161079,
                            0.9499143387612881,
                            0.9591600738739499,
                            -0.7397436396961828,
                            -0.8380751920230596,
                            -0.8290185306834459,
                            -0.8811998402159303,
                            -0.9527344805327836
                        ]
                    ],
                    "biases": [
                        [
                            -0.1280066432579108,
                            0.06440334737893885,
                            -1.2864650316015973,
                            1.0,
                            1.277630196344733,
                            0.6711630142258077,
                            0.9895152598736041,
                            -1.1501152533235854
                        ]
                    ]
                }
            ],
            [
                {
                    "weights": [
                        [
                            -0.18322583497841582,
                            0.22553773055784998,
                            0.7491150695021859,
                            -0.14232607907786204,
                            -1.0728013473672329
                        ],
                        [
                            1.0,
                            -0.5621733409297273,
                            0.3936794089583695,
                            -0.5171539539716541,
                            -1.0
                        ],
                        [
                            0.005256881292280441,
                            0.8491996566670851,
                            0.8467158994657167,
                            0.8632676968326422,
                            -0.7421736414407049
                        ],
                        [
                            1.0452104674780813,
                            -0.13388896159516842,
                            -0.7506576559877642,
                            -0.13917929368377074,
                            -0.2245290528465737
                        ],
                        [
                            1.0,
                            -1.1281273253826694,
                            0.1276642786562517,
                            0.8707803242866337,
                            -1.0874906146700378
                        ],
                        [
                            -1.0798654528015628,
                            0.7509336679380305,
                            -0.5790017838448336,
                            -0.4699443405996662,
                            1.067268255278933
                        ],
                        [
                            -1.018560553327422,
                            -0.29353556031096184,
                            0.733785866824684,
                            -0.7377207338509753,
                            0.48220416820382084
                        ],
                        [
                            -0.4428364932452231,
                            -0.4164946960097344,
                            0.6616664619455561,
                            -0.823121154298751,
                            -0.970053773279675
                        ]
                    ],
                    "biases": [
                        [
                            -0.2023243025282706,
                            -0.07954257851671107,
                            0.5017327717024365,
                            0.17705156320342377,
                            0.28384107232992095
                        ]
                    ]
                }
            ]
        ],
        [
            [
                {
                    "weights": [
                        [
                            -1.1850419721359249,
                            -1.0208197816117595,
                            0.057902097477973785,
                            1.0,
                            -1.0102527747385797,
                            -1.0170682546497234,
                            0.8802720934730628,
                            -1.1847195446814491
                        ],
                        [
                            1.0,
                            0.19546381246908343,
                            0.4913911474799885,
                            0.4428417367719104,
                            -0.854781159984253,
                            0.3692587928000953,
                            -0.011438179450491248,
                            -0.7774991006610718
                        ],
                        [
                            -0.8167766158912457,
                            0.30487656604017044,
                            -0.04640488337131428,
                            -0.626032668899616,
                            0.9325509124925786,
                            -0.2095465051377881,
                            -0.7573736947493959,
                            -1.0
                        ],
                        [
                            0.3584132285175283,
                            0.058371515562901766,
                            0.22769160325187057,
                            0.01832829014089865,
                            0.10956689620069752,
                            -0.871845585179249,
                            -0.06383569302129197,
                            1.1772008066519606
                        ],
                        [
                            -0.7517291241548998,
                            -0.3175695251231484,
                            1.0,
                            -0.4715997482282112,
                            -1.0,
                            -0.8221193471620374,
                            1.0,
                            -0.8459253939833159
                        ]
                    ],
                    "biases": [
                        [
                            -0.9978466002029127,
                            -0.793639240199611,
                            -1.0,
                            0.6724467351223375,
                            -0.9524910261329247,
                            0.24929627983893127,
                            -0.9211325531068775,
                            -0.931341180823524
                        ]
                    ]
                }
            ],
            [
                {
                    "weights": [
                        [
                            -0.8341496640772124,
                            0.11926716212708012,
                            0.00039126786132379543,
                            -0.4115373836293103,
                            -1.0128054648699212,
                            1.0117013956098582,
                            0.4793898376334508,
                            -0.811907318969134
                        ],
                        [
                            0.4292612104135769,
                            0.8798492439382299,
                            0.4417646839290869,
                            -1.1028702993747035,
                            -1.0,
                            -0.9730361923249358,
                            -0.4603864526585959,
                            0.11561223363866382
                        ],
                        [
                            -0.21502230972372932,
                            0.10603365498486024,
                            0.7013730747672822,
                            -0.5004899345539189,
                            0.6746893343829715,
                            -0.8948292447469917,
                            1.0,
                            0.12033542486751464
                        ],
                        [
                            0.18174223416109664,
                            0.7121824479025617,
                            0.656146979799594,
                            -0.01495662852346362,
                            -0.006415132799047318,
                            1.0,
                            -0.4372587319926336,
                            -0.6780379321151703
                        ],
                        [
                            0.38375603147646964,
                            -0.43709964484774205,
                            -1.0702562250522951,
                            -0.5131375013412712,
                            -0.5652439449876863,
                            -0.5447220925313413,
                            -1.1678779736075142,
                            -0.10810836754821293
                        ],
                        [
                            -1.0,
                            -0.44350630657166495,
                            0.49992109468882456,
                            -0.6482108250501307,
                            0.23438681480419726,
                            -0.590151888624793,
                            -0.917808779063738,
                            0.43811803474769284
                        ],
                        [
                            -0.9503957599648293,
                            0.6719377759840154,
                            1.1938068504745842,
                            0.0977956827652973,
                            0.9630803385129382,
                            1.078765995855575,
                            -0.8747918169190871,
                            -0.18302806413565564
                        ],
                        [
                            -0.9390533785161079,
                            0.9499143387612881,
                            0.9591600738739499,
                            -0.7397436396961828,
                            -0.8380751920230596,
                            -0.8290185306834459,
                            -0.8811998402159303,
                            -0.9527344805327836
                        ]
                    ],
                    "biases": [
                        [
                            -0.1280066432579108,
                            0.06440334737893885,
                            -1.2864650316015973,
                            1.0,
                            1.277630196344733,
                            0.6711630142258077,
                            0.9895152598736041,
                            -1.1501152533235854
                        ]
                    ]
                }
            ],
            [
                {
                    "weights": [
                        [
                            -0.18322583497841582,
                            0.22553773055784998,
                            0.7491150695021859,
                            -0.14232607907786204,
                            -1.0728013473672329
                        ],
                        [
                            1.0,
                            -0.5621733409297273,
                            0.3936794089583695,
                            -0.5171539539716541,
                            -1.0
                        ],
                        [
                            0.005256881292280441,
                            0.8491996566670851,
                            0.8467158994657167,
                            0.8632676968326422,
                            -0.7421736414407049
                        ],
                        [
                            1.0452104674780813,
                            -0.13388896159516842,
                            -0.7506576559877642,
                            -0.13917929368377074,
                            -0.2245290528465737
                        ],
                        [
                            1.0,
                            -1.1281273253826694,
                            0.1276642786562517,
                            0.8707803242866337,
                            -1.0874906146700378
                        ],
                        [
                            -1.0798654528015628,
                            0.7509336679380305,
                            -0.5790017838448336,
                            -0.4699443405996662,
                            1.067268255278933
                        ],
                        [
                            -1.018560553327422,
                            -0.29353556031096184,
                            0.733785866824684,
                            -0.7377207338509753,
                            0.48220416820382084
                        ],
                        [
                            -0.4428364932452231,
                            -0.4164946960097344,
                            0.6616664619455561,
                            -0.823121154298751,
                            -0.970053773279675
                        ]
                    ],
                    "biases": [
                        [
                            -0.2023243025282706,
                            -0.07954257851671107,
                            0.5017327717024365,
                            0.17705156320342377,
                            0.28384107232992095
                        ]
                    ]
                }
            ]
        ],
        [
            [
                {
                    "weights": [
                        [
                            -0.8595219687812476,
                            -1.0208197816117595,
                            -0.03085281105920398,
                            0.7646494942968407,
                            -1.0102527747385797,
                            -1.0170682546497234,
                            0.8912803158905385,
                            -1.1302377916939204
                        ],
                        [
                            1.0,
                            0.12738648688578164,
                            0.4396590306259281,
                            0.4428417367719104,
                            -0.854781159984253,
                            0.007851573885407026,
                            -0.19389336185618683,
                            -0.7774991006610718
                        ],
                        [
                            -0.8167766158912457,
                            0.10963835248961126,
                            -0.04640488337131428,
                            -0.5641686946562019,
                            0.725807295801544,
                            -0.18163612467501739,
                            -0.5710332992780396,
                            -1.0
                        ],
                        [
                            0.4033631638829478,
                            -0.1228996963720893,
                            0.22769160325187057,
                            -0.10666992685640264,
                            0.10956689620069752,
                            -0.871845585179249,
                            0.028871500100296182,
                            1.0
                        ],
                        [
                            -0.7811105520437884,
                            -0.38410609545068397,
                            1.1916128333045883,
                            -0.5699883420762939,
                            -1.0,
                            -0.8221193471620374,
                            1.0,
                            -0.8755119288110278
                        ]
                    ],
                    "biases": [
                        [
                            -0.9978466002029127,
                            -0.793639240199611,
                            -1.0,
                            0.7135572425836181,
                            -0.7598937764832825,
                            0.5391749891521176,
                            -0.794082252149098,
                            -1.0023343260445143
                        ]
                    ]
                }
            ],
            [
                {
                    "weights": [
                        [
                            -0.8285594365202436,
                            0.11926716212708012,
                            -0.15508141106432335,
                            -0.2222726697889354,
                            -1.0128054648699212,
                            1.1772903676127715,
                            0.333694794677767,
                            -0.8795184977036041
                        ],
                        [
                            0.35655226698938625,
                            1.0127980828913241,
                            0.4417646839290869,
                            -0.9396054849174249,
                            -1.0,
                            -0.9730361923249358,
                            -0.08134033559821746,
                            0.08820952075433647
                        ],
                        [
                            -0.21502230972372932,
                            -0.06681178563547176,
                            0.5456232191897306,
                            -0.3544744778302487,
                            0.6746893343829715,
                            -0.7047788375024542,
                            1.0,
                            0.12033542486751464
                        ],
                        [
                            0.2975676262455441,
                            0.6958985413727827,
                            0.6226285554574271,
                            -0.01495662852346362,
                            0.1568792583262134,
                            1.0,
                            -0.28142862116056777,
                            -0.6780379321151703
                        ],
                        [
                            0.5324006968639783,
                            -0.4607788550636104,
                            -1.0,
                            -0.5131375013412712,
                            -0.5652439449876863,
                            -0.48930049440550205,
                            -1.160477953694865,
                            -0.10810836754821293
                        ],
                        [
                            -1.0968770690884317,
                            -0.44350630657166495,
                            0.49992109468882456,
                            -0.7623843207294767,
                            0.31311923853486107,
                            -0.590151888624793,
                            -0.8964773775770083,
                            0.3242590460463083
                        ],
                        [
                            -0.9733756203395059,
                            0.793037732773951,
                            1.1938068504745842,
                            -0.14687495021791186,
                            0.7998926073957773,
                            1.2668154411285844,
                            -0.8175628332538367,
                            0.0658948767711868
                        ],
                        [
                            -0.9390533785161079,
                            0.7832524990665587,
                            0.8491305610257269,
                            -0.7940783540693024,
                            -1.0018023268497567,
                            -0.8290185306834459,
                            -1.066045533370902,
                            -0.9527344805327836
                        ]
                    ],
                    "biases": [
                        [
                            -0.30305858713027023,
                            0.06440334737893885,
                            -1.1739263047661386,
                            0.9213790383945589,
                            1.2080296777171264,
                            0.6711630142258077,
                            0.904557080394151,
                            -1.1501152533235854
                        ]
                    ]
                }
            ],
            [
                {
                    "weights": [
                        [
                            -0.18322583497841582,
                            0.22553773055784998,
                            0.7491150695021859,
                            -0.14232607907786204,
                            -1.0728013473672329
                        ],
                        [
                            1.0,
                            -0.5082530911580512,
                            0.36354651103266555,
                            -0.2855599613149554,
                            -1.0
                        ],
                        [
                            0.005256881292280441,
                            1.0342118378445448,
                            0.8467158994657167,
                            1.052559513603565,
                            -0.8481318172030757
                        ],
                        [
                            1.0452104674780813,
                            -0.13388896159516842,
                            -0.7506576559877642,
                            -0.052067624153757264,
                            -0.2245290528465737
                        ],
                        [
                            0.9724903151259459,
                            -1.1281273253826694,
                            0.30063535773961575,
                            0.8707803242866337,
                            -1.1706846336449155
                        ],
                        [
                            -1.0798654528015628,
                            0.6976189570817852,
                            -0.5485513405469523,
                            -0.4699443405996662,
                            1.067268255278933
                        ],
                        [
                            -1.018560553327422,
                            -0.2477455102378298,
                            0.733785866824684,
                            -0.7377207338509753,
                            0.3883041918160175
                        ],
                        [
                            -0.5005080021462511,
                            -0.45820049987747874,
                            0.3050752943405476,
                            -0.823121154298751,
                            -0.5746775746807432
                        ]
                    ],
                    "biases": [
                        [
                            -0.3243226621356396,
                            -0.09837420945037281,
                            0.5017327717024365,
                            0.10742923058441528,
                            0.28384107232992095
                        ]
                    ]
                }
            ]
        ],
        [
            [
                {
                    "weights": [
                        [
                            -1.1850419721359249,
                            -1.0208197816117595,
                            0.057902097477973785,
                            1.0,
                            -1.0102527747385797,
                            -1.0170682546497234,
                            0.8802720934730628,
                            -1.1847195446814491
                        ],
                        [
                            1.0,
                            0.19546381246908343,
                            0.4913911474799885,
                            0.4428417367719104,
                            -0.854781159984253,
                            0.3692587928000953,
                            -0.011438179450491248,
                            -0.7774991006610718
                        ],
                        [
                            -0.8167766158912457,
                            0.30487656604017044,
                            -0.04640488337131428,
                            -0.626032668899616,
                            0.9325509124925786,
                            -0.2095465051377881,
                            -0.7573736947493959,
                            -1.0
                        ],
                        [
                            0.3584132285175283,
                            0.058371515562901766,
                            0.22769160325187057,
                            0.01832829014089865,
                            0.10956689620069752,
                            -0.871845585179249,
                            -0.06383569302129197,
                            1.1772008066519606
                        ],
                        [
                            -0.7517291241548998,
                            -0.3175695251231484,
                            1.0,
                            -0.4715997482282112,
                            -1.0,
                            -0.8221193471620374,
                            1.0,
                            -0.8459253939833159
                        ]
                    ],
                    "biases": [
                        [
                            -0.9978466002029127,
                            -0.793639240199611,
                            -1.0,
                            0.6724467351223375,
                            -0.9524910261329247,
                            0.24929627983893127,
                            -0.9211325531068775,
                            -0.931341180823524
                        ]
                    ]
                }
            ],
            [
                {
                    "weights": [
                        [
                            -0.8341496640772124,
                            0.11926716212708012,
                            0.00039126786132379543,
                            -0.4115373836293103,
                            -1.0128054648699212,
                            1.0117013956098582,
                            0.4793898376334508,
                            -0.811907318969134
                        ],
                        [
                            0.4292612104135769,
                            0.8798492439382299,
                            0.4417646839290869,
                            -1.1028702993747035,
                            -1.0,
                            -0.9730361923249358,
                            -0.4603864526585959,
                            0.11561223363866382
                        ],
                        [
                            -0.21502230972372932,
                            0.10603365498486024,
                            0.7013730747672822,
                            -0.5004899345539189,
                            0.6746893343829715,
                            -0.8948292447469917,
                            1.0,
                            0.12033542486751464
                        ],
                        [
                            0.18174223416109664,
                            0.7121824479025617,
                            0.656146979799594,
                            -0.01495662852346362,
                            -0.006415132799047318,
                            1.0,
                            -0.4372587319926336,
                            -0.6780379321151703
                        ],
                        [
                            0.38375603147646964,
                            -0.43709964484774205,
                            -1.0702562250522951,
                            -0.5131375013412712,
                            -0.5652439449876863,
                            -0.5447220925313413,
                            -1.1678779736075142,
                            -0.10810836754821293
                        ],
                        [
                            -1.0,
                            -0.44350630657166495,
                            0.49992109468882456,
                            -0.6482108250501307,
                            0.23438681480419726,
                            -0.590151888624793,
                            -0.917808779063738,
                            0.43811803474769284
                        ],
                        [
                            -0.9503957599648293,
                            0.6719377759840154,
                            1.1938068504745842,
                            0.0977956827652973,
                            0.9630803385129382,
                            1.078765995855575,
                            -0.8747918169190871,
                            -0.18302806413565564
                        ],
                        [
                            -0.9390533785161079,
                            0.9499143387612881,
                            0.9591600738739499,
                            -0.7397436396961828,
                            -0.8380751920230596,
                            -0.8290185306834459,
                            -0.8811998402159303,
                            -0.9527344805327836
                        ]
                    ],
                    "biases": [
                        [
                            -0.1280066432579108,
                            0.06440334737893885,
                            -1.2864650316015973,
                            1.0,
                            1.277630196344733,
                            0.6711630142258077,
                            0.9895152598736041,
                            -1.1501152533235854
                        ]
                    ]
                }
            ],
            [
                {
                    "weights": [
                        [
                            -0.18322583497841582,
                            0.22553773055784998,
                            0.7491150695021859,
                            -0.14232607907786204,
                            -1.0728013473672329
                        ],
                        [
                            1.0,
                            -0.5621733409297273,
                            0.3936794089583695,
                            -0.5171539539716541,
                            -1.0
                        ],
                        [
                            0.005256881292280441,
                            0.8491996566670851,
                            0.8467158994657167,
                            0.8632676968326422,
                            -0.7421736414407049
                        ],
                        [
                            1.0452104674780813,
                            -0.13388896159516842,
                            -0.7506576559877642,
                            -0.13917929368377074,
                            -0.2245290528465737
                        ],
                        [
                            1.0,
                            -1.1281273253826694,
                            0.1276642786562517,
                            0.8707803242866337,
                            -1.0874906146700378
                        ],
                        [
                            -1.0798654528015628,
                            0.7509336679380305,
                            -0.5790017838448336,
                            -0.4699443405996662,
                            1.067268255278933
                        ],
                        [
                            -1.018560553327422,
                            -0.29353556031096184,
                            0.733785866824684,
                            -0.7377207338509753,
                            0.48220416820382084
                        ],
                        [
                            -0.4428364932452231,
                            -0.4164946960097344,
                            0.6616664619455561,
                            -0.823121154298751,
                            -0.970053773279675
                        ]
                    ],
                    "biases": [
                        [
                            -0.2023243025282706,
                            -0.07954257851671107,
                            0.5017327717024365,
                            0.17705156320342377,
                            0.28384107232992095
                        ]
                    ]
                }
            ]
        ],
        [
            [
                {
                    "weights": [
                        [
                            -0.9042655586276157,
                            -1.1388462297998132,
                            -0.051324573741490506,
                            1.0464238645137296,
                            -1.050927218356319,
                            -0.8875686701678935,
                            0.8178372250631076,
                            -1.1760964706206882
                        ],
                        [
                            0.8712052408662994,
                            0.19546381246908343,
                            0.4992407592749077,
                            0.2624615681824475,
                            -0.8979764917793592,
                            -0.12638091659015502,
                            0.073652360158391,
                            -0.7711880007415179
                        ],
                        [
                            -0.8167766158912457,
                            -0.09444818289242375,
                            0.015513665252632633,
                            -0.626032668899616,
                            0.7508307502359932,
                            -0.0806176515442995,
                            -0.6191852183410891,
                            -1.0
                        ],
                        [
                            0.5957768307519253,
                            -0.026824682607613892,
                            0.19625544495996486,
                            -0.10666992685640264,
                            0.11121607791775434,
                            -0.8959381951555321,
                            0.028871500100296182,
                            0.8571958637025374
                        ],
                        [
                            -0.7517291241548998,
                            -0.256245335465202,
                            0.9591192678558794,
                            -0.5927957616812087,
                            -1.1959542978689794,
                            -0.8221193471620374,
                            1.1036758912938989,
                            -0.8069625274161711
                        ]
                    ],
                    "biases": [
                        [
                            -0.9978466002029127,
                            -0.7177827025576062,
                            -0.9749227300975243,
                            0.6724467351223375,
                            -0.7455162620821028,
                            0.24929627983893127,
                            -1.0641948427558905,
                            -0.931341180823524
                        ]
                    ]
                }
            ],
            [
                {
                    "weights": [
                        [
                            -0.8341496640772124,
                            0.11926716212708012,
                            -0.2349067037205116,
                            -0.5733696906480339,
                            -0.9923063878094731,
                            1.019440301841374,
                            0.26305024812435707,
                            -1.0448654572568201
                        ],
                        [
                            0.4959855064230039,
                            1.1029589771604804,
                            0.4417646839290869,
                            -1.167408775864971,
                            -0.8800213221282459,
                            -0.9884477770387847,
                            -0.14793888972851688,
                            0.22174816373010095
                        ],
                        [
                            -0.22883429087138207,
                            -0.06681178563547176,
                            0.6774839068029321,
                            -0.35591006633337724,
                            0.6746893343829715,
                            -0.7650730076378525,
                            1.1075431547515273,
                            0.18844101749146192
                        ],
                        [
                            0.2975676262455441,
                            0.7121824479025617,
                            0.656146979799594,
                            -0.3775597973356935,
                            0.3002368948881398,
                            0.9528552022377644,
                            -0.4372587319926336,
                            -0.647687037091824
                        ],
                        [
                            0.38375603147646964,
                            -0.6622918940864255,
                            -1.286213182503459,
                            -0.37467662391652773,
                            -0.44129444448515276,
                            -0.377518603768866,
                            -1.1319569919728707,
                            -0.3559789536189086
                        ],
                        [
                            -1.096239446758244,
                            -0.5543920598848139,
                            0.450847462510244,
                            -0.7771408697816636,
                            0.3739596550880871,
                            -0.590151888624793,
                            -0.8954979526485441,
                            0.43409217627307206
                        ],
                        [
                            -0.9503957599648293,
                            0.5341842990437932,
                            1.1938068504745842,
                            0.16189776585397547,
                            0.7998926073957773,
                            0.9852210715267147,
                            -0.5658455322573925,
                            0.053453256066325894
                        ],
                        [
                            -0.9390533785161079,
                            0.7784468581673647,
                            1.0,
                            -0.855941215188301,
                            -0.7556172805105765,
                            -0.7463914463400779,
                            -0.98524446689176,
                            -1.0187064026836674
                        ]
                    ],
                    "biases": [
                        [
                            -0.17308647478362038,
                            0.06440334737893885,
                            -1.101325260231477,
                            1.0,
                            1.30630309993252,
                            0.6301681993501334,
                            0.8985806267682083,
                            -1.0528609338826755
                        ]
                    ]
                }
            ],
            [
                {
                    "weights": [
                        [
                            -0.2290110471034173,
                            0.22553773055784998,
                            0.5706372540625826,
                            -0.14232607907786204,
                            -1.0827420906160328
                        ],
                        [
                            1.0,
                            -0.5946102880027133,
                            0.627755731511366,
                            -0.5171539539716541,
                            -1.0
                        ],
                        [
                            -0.0854003080206695,
                            1.0413238033052081,
                            0.9234079746865527,
                            0.9757954408684756,
                            -0.7421736414407049
                        ],
                        [
                            1.1553199354913937,
                            -0.0005057191781227266,
                            -0.7111358089961162,
                            0.08408167382533283,
                            -0.2245290528465737
                        ],
                        [
                            1.1498232294245818,
                            -1.1281273253826694,
                            0.16209363401870192,
                            1.045353602934579,
                            -0.9516936122766371
                        ],
                        [
                            -1.0434612044020677,
                            0.7509336679380305,
                            -0.43946394703099717,
                            -0.4699443405996662,
                            1.067268255278933
                        ],
                        [
                            -1.018560553327422,
                            -0.29353556031096184,
                            0.8043850041195663,
                            -0.6701350020782157,
                            0.1796848538331343
                        ],
                        [
                            -0.5805270685956773,
                            -0.33764191689517914,
                            0.4102677885173856,
                            -0.9196836610697764,
                            -1.0462133393000923
                        ]
                    ],
                    "biases": [
                        [
                            -0.18490611112028532,
                            0.2804699670199068,
                            0.5017327717024365,
                            0.21921119220828278,
                            0.28384107232992095
                        ]
                    ]
                }
            ]
        ],
        [
            [
                {
                    "weights": [
                        [
                            -1.1850419721359249,
                            -1.0208197816117595,
                            0.057902097477973785,
                            1.0,
                            -1.0102527747385797,
                            -1.0170682546497234,
                            0.9755336907133948,
                            -1.1847195446814491
                        ],
                        [
                            1.0,
                            0.19546381246908343,
                            0.4913911474799885,
                            0.4428417367719104,
                            -0.854781159984253,
                            0.3692587928000953,
                            -0.011438179450491248,
                            -0.7774991006610718
                        ],
                        [
                            -0.8167766158912457,
                            0.30487656604017044,
                            -0.04640488337131428,
                            -0.626032668899616,
                            0.9325509124925786,
                            -0.28979596442975697,
                            -0.7573736947493959,
                            -0.8710677838798365
                        ],
                        [
                            0.3584132285175283,
                            0.058371515562901766,
                            0.341799353012173,
                            0.01832829014089865,
                            0.10956689620069752,
                            -0.871845585179249,
                            -0.06383569302129197,
                            1.1772008066519606
                        ],
                        [
                            -0.5788462015837953,
                            -0.3175695251231484,
                            1.0,
                            -0.4715997482282112,
                            -1.0,
                            -0.8221193471620374,
                            1.0,
                            -0.8459253939833159
                        ]
                    ],
                    "biases": [
                        [
                            -0.9072048351442911,
                            -0.793639240199611,
                            -1.0,
                            0.6724467351223375,
                            -1.0755036967021878,
                            0.24929627983893127,
                            -0.9211325531068775,
                            -0.931341180823524
                        ]
                    ]
                }
            ],
            [
                {
                    "weights": [
                        [
                            -0.8750153329686818,
                            0.11926716212708012,
                            0.00039126786132379543,
                            -0.4115373836293103,
                            -1.0128054648699212,
                            1.0117013956098582,
                            0.4793898376334508,
                            -0.811907318969134
                        ],
                        [
                            0.4292612104135769,
